{"graph_0": {"_type": "graph", "format": "torch", "nodes": [{"name": "input_network.0", "id": 46915231445288, "class_name": "Linear(in_features=3, out_features=17, bias=True)", "parameters": [["weight", [17, 3]], ["bias", [17]]], "output_shape": [[23561, 17]], "num_parameters": [51, 17]}, {"name": "input_network.1", "id": 46915231445232, "class_name": "ReLU()", "parameters": [], "output_shape": [[23561, 17]], "num_parameters": []}, {"name": "node_network", "id": 46915231445400, "class_name": "TwoHopAttNetwork(\n  (network): Sequential(\n    (0): Linear(in_features=100, out_features=17, bias=True)\n    (1): ReLU()\n    (2): Linear(in_features=17, out_features=17, bias=True)\n    (3): ReLU()\n    (4): Linear(in_features=17, out_features=17, bias=True)\n    (5): ReLU()\n    (6): Linear(in_features=17, out_features=17, bias=True)\n    (7): ReLU()\n  )\n)", "parameters": [["network.0.weight", [17, 100]], ["network.0.bias", [17]], ["network.2.weight", [17, 17]], ["network.2.bias", [17]], ["network.4.weight", [17, 17]], ["network.4.bias", [17]], ["network.6.weight", [17, 17]], ["network.6.bias", [17]]], "output_shape": [[23561, 17]], "num_parameters": [1700, 17, 289, 17, 289, 17, 289, 17]}, {"name": "output_network.0", "id": 46915231446072, "class_name": "Linear(in_features=20, out_features=17, bias=True)", "parameters": [["weight", [17, 20]], ["bias", [17]]], "output_shape": [[23561, 17]], "num_parameters": [340, 17]}, {"name": "output_network.1", "id": 46915231446576, "class_name": "ReLU()", "parameters": [], "output_shape": [[23561, 17]], "num_parameters": []}, {"name": "output_network.2", "id": 46915231446632, "class_name": "Linear(in_features=17, out_features=17, bias=True)", "parameters": [["weight", [17, 17]], ["bias", [17]]], "output_shape": [[23561, 17]], "num_parameters": [289, 17]}, {"name": "output_network.3", "id": 46915231446688, "class_name": "ReLU()", "parameters": [], "output_shape": [[23561, 17]], "num_parameters": []}, {"name": "output_network.4", "id": 46915231446744, "class_name": "Linear(in_features=17, out_features=17, bias=True)", "parameters": [["weight", [17, 17]], ["bias", [17]]], "output_shape": [[23561, 17]], "num_parameters": [289, 17]}, {"name": "output_network.5", "id": 46915231446800, "class_name": "ReLU()", "parameters": [], "output_shape": [[23561, 17]], "num_parameters": []}, {"name": "output_network.6", "id": 46915231446856, "class_name": "Linear(in_features=17, out_features=1, bias=True)", "parameters": [["weight", [1, 17]], ["bias", [1]]], "output_shape": [[23561, 1]], "num_parameters": [17, 1]}], "edges": []}, "gradients/output_network.6.bias": {"_type": "histogram", "values": [0.0, 0.0, 0.0, 0.0, 0.0, 0.0, 0.0, 0.0, 0.0, 0.0, 0.0, 0.0, 0.0, 0.0, 0.0, 0.0, 0.0, 0.0, 0.0, 0.0, 0.0, 0.0, 0.0, 0.0, 0.0, 0.0, 0.0, 0.0, 0.0, 0.0, 0.0, 0.0, 1.0, 0.0, 0.0, 0.0, 0.0, 0.0, 0.0, 0.0, 0.0, 0.0, 0.0, 0.0, 0.0, 0.0, 0.0, 0.0, 0.0, 0.0, 0.0, 0.0, 0.0, 0.0, 0.0, 0.0, 0.0, 0.0, 0.0, 0.0, 0.0, 0.0, 0.0, 0.0], "bins": [0.037814538925886154, 0.037814538925886154, 0.037814538925886154, 0.037814538925886154, 0.037814538925886154, 0.037814538925886154, 0.037814538925886154, 0.037814538925886154, 0.037814538925886154, 0.037814538925886154, 0.037814538925886154, 0.037814538925886154, 0.037814538925886154, 0.037814538925886154, 0.037814538925886154, 0.037814538925886154, 0.037814538925886154, 0.037814538925886154, 0.037814538925886154, 0.037814538925886154, 0.037814538925886154, 0.037814538925886154, 0.037814538925886154, 0.037814538925886154, 0.037814538925886154, 0.037814538925886154, 0.037814538925886154, 0.037814538925886154, 0.037814538925886154, 0.037814538925886154, 0.037814538925886154, 0.037814538925886154, 0.037814538925886154, 0.037814538925886154, 0.037814538925886154, 0.037814538925886154, 0.037814538925886154, 0.037814538925886154, 0.037814538925886154, 0.037814538925886154, 0.037814538925886154, 0.037814538925886154, 0.037814538925886154, 0.037814538925886154, 0.037814538925886154, 0.037814538925886154, 0.037814538925886154, 0.037814538925886154, 0.037814538925886154, 0.037814538925886154, 0.037814538925886154, 0.037814538925886154, 0.037814538925886154, 0.037814538925886154, 0.037814538925886154, 0.037814538925886154, 0.037814538925886154, 0.037814538925886154, 0.037814538925886154, 0.037814538925886154, 0.037814538925886154, 0.037814538925886154, 0.037814538925886154, 0.037814538925886154, 0.037814538925886154]}, "gradients/output_network.0.weight": {"_type": "histogram", "values": [3.0, 2.0, 4.0, 1.0, 2.0, 19.0, 155.0, 25.0, 6.0, 10.0, 7.0, 5.0, 3.0, 6.0, 1.0, 5.0, 4.0, 3.0, 2.0, 3.0, 3.0, 1.0, 4.0, 4.0, 0.0, 1.0, 2.0, 5.0, 4.0, 3.0, 3.0, 2.0, 3.0, 3.0, 0.0, 2.0, 5.0, 2.0, 3.0, 5.0, 2.0, 3.0, 0.0, 0.0, 3.0, 1.0, 3.0, 0.0, 1.0, 1.0, 0.0, 0.0, 0.0, 2.0, 1.0, 0.0, 0.0, 1.0, 0.0, 0.0, 0.0, 0.0, 0.0, 1.0], "bins": [-0.005031941924244165, -0.004194209817796946, -0.0033564777113497257, -0.002518745604902506, -0.001681013498455286, -0.0008432813920080662, -5.549285560846329e-06, 0.0008321828208863735, 0.0016699149273335934, 0.0025076470337808132, 0.003345379140228033, 0.004183111246675253, 0.005020843353122473, 0.005858575459569693, 0.0066963075660169125, 0.007534039672464132, 0.00837177224457264, 0.00920950435101986, 0.01004723645746708, 0.010884968563914299, 0.011722700670361519, 0.012560432776808739, 0.013398164883255959, 0.014235896989703178, 0.015073629096150398, 0.015911361202597618, 0.016749093309044838, 0.017586825415492058, 0.018424557521939278, 0.019262289628386497, 0.020100021734833717, 0.020937753841280937, 0.021775485947728157, 0.022613218054175377, 0.023450950160622597, 0.024288682267069817, 0.025126414373517036, 0.025964146479964256, 0.026801878586411476, 0.027639610692858696, 0.028477342799305916, 0.029315074905753136, 0.030152807012200356, 0.030990539118647575, 0.031828269362449646, 0.032666001468896866, 0.033503733575344086, 0.034341465681791306, 0.035179197788238525, 0.036016929894685745, 0.036854662001132965, 0.037692394107580185, 0.038530126214027405, 0.039367858320474625, 0.040205590426921844, 0.041043322533369064, 0.041881054639816284, 0.042718786746263504, 0.043556518852710724, 0.044394250959157944, 0.045231983065605164, 0.04606971517205238, 0.0469074472784996, 0.04774517938494682, 0.04858291149139404]}, "Validation Accuracy": 0.33948326173446014, "parameters/output_network.0.bias": {"_type": "histogram", "values": [1.0, 0.0, 0.0, 0.0, 0.0, 0.0, 0.0, 0.0, 0.0, 0.0, 0.0, 0.0, 0.0, 0.0, 0.0, 0.0, 0.0, 0.0, 0.0, 0.0, 0.0, 0.0, 0.0, 0.0, 0.0, 0.0, 0.0, 0.0, 1.0, 1.0, 0.0, 0.0, 0.0, 0.0, 0.0, 0.0, 0.0, 1.0, 1.0, 1.0, 0.0, 0.0, 1.0, 1.0, 1.0, 1.0, 0.0, 0.0, 0.0, 0.0, 1.0, 0.0, 0.0, 1.0, 1.0, 1.0, 0.0, 1.0, 0.0, 0.0, 1.0, 0.0, 0.0, 1.0], "bins": [-0.9061679840087891, -0.8886237740516663, -0.8710795640945435, -0.8535353541374207, -0.8359911441802979, -0.8184468746185303, -0.8009027242660522, -0.7833584547042847, -0.7658142447471619, -0.7482700347900391, -0.7307258248329163, -0.7131816148757935, -0.6956374049186707, -0.6780931949615479, -0.660548985004425, -0.6430047750473022, -0.6254605054855347, -0.6079163551330566, -0.5903720855712891, -0.5728278756141663, -0.5552836656570435, -0.5377394556999207, -0.5201952457427979, -0.502651035785675, -0.48510682582855225, -0.46756258606910706, -0.45001837611198425, -0.43247416615486145, -0.41492995619773865, -0.39738571643829346, -0.37984150648117065, -0.36229729652404785, -0.34475308656692505, -0.32720887660980225, -0.30966466665267944, -0.29212045669555664, -0.27457624673843384, -0.25703203678131104, -0.23948776721954346, -0.22194355726242065, -0.20439934730529785, -0.18685513734817505, -0.16931092739105225, -0.15176671743392944, -0.13422250747680664, -0.11667829751968384, -0.09913408756256104, -0.08158987760543823, -0.06404566764831543, -0.04650139808654785, -0.02895718812942505, -0.011412978172302246, 0.006131231784820557, 0.02367544174194336, 0.04121965169906616, 0.058763861656188965, 0.07630807161331177, 0.09385228157043457, 0.11139655113220215, 0.12894070148468018, 0.14648497104644775, 0.16402912139892578, 0.18157339096069336, 0.1991175413131714, 0.21666181087493896]}, "parameters/output_network.2.bias": {"_type": "histogram", "values": [1.0, 0.0, 1.0, 1.0, 1.0, 1.0, 2.0, 0.0, 0.0, 1.0, 0.0, 0.0, 0.0, 0.0, 0.0, 0.0, 0.0, 0.0, 0.0, 0.0, 0.0, 0.0, 2.0, 0.0, 0.0, 1.0, 0.0, 0.0, 0.0, 0.0, 0.0, 0.0, 0.0, 0.0, 0.0, 0.0, 0.0, 0.0, 1.0, 0.0, 0.0, 0.0, 0.0, 1.0, 0.0, 0.0, 0.0, 0.0, 0.0, 0.0, 0.0, 0.0, 0.0, 0.0, 0.0, 1.0, 1.0, 1.0, 0.0, 0.0, 0.0, 0.0, 0.0, 1.0], "bins": [-0.30344653129577637, -0.2941824495792389, -0.2849183678627014, -0.27565428614616394, -0.26639020442962646, -0.257126122713089, -0.2478620409965515, -0.23859795928001404, -0.22933387756347656, -0.2200697958469391, -0.2108057141304016, -0.20154163241386414, -0.19227753579616547, -0.183013454079628, -0.17374937236309052, -0.16448529064655304, -0.15522120893001556, -0.1459571272134781, -0.1366930454969406, -0.12742896378040314, -0.11816488206386566, -0.10890080034732819, -0.09963671863079071, -0.09037263691425323, -0.08110854029655457, -0.07184445858001709, -0.06258037686347961, -0.05331629514694214, -0.04405221343040466, -0.03478813171386719, -0.025524049997329712, -0.016259968280792236, -0.006995886564254761, 0.002268195152282715, 0.01153227686882019, 0.020796358585357666, 0.03006044030189514, 0.03932452201843262, 0.04858860373497009, 0.05785268545150757, 0.06711676716804504, 0.07638084888458252, 0.08564493060112, 0.09490901231765747, 0.10417309403419495, 0.11343717575073242, 0.1227012574672699, 0.13196533918380737, 0.14122945070266724, 0.1504935324192047, 0.1597576141357422, 0.16902169585227966, 0.17828577756881714, 0.18754985928535461, 0.1968139410018921, 0.20607799291610718, 0.21534210443496704, 0.22460615634918213, 0.233870267868042, 0.24313431978225708, 0.25239843130111694, 0.26166248321533203, 0.2709265947341919, 0.280190646648407, 0.28945475816726685]}, "parameters/node_network.network.4.bias": {"_type": "histogram", "values": [1.0, 0.0, 0.0, 0.0, 0.0, 0.0, 0.0, 0.0, 0.0, 0.0, 0.0, 0.0, 0.0, 0.0, 0.0, 0.0, 0.0, 0.0, 0.0, 0.0, 0.0, 0.0, 1.0, 2.0, 2.0, 0.0, 1.0, 0.0, 1.0, 0.0, 0.0, 1.0, 0.0, 1.0, 0.0, 0.0, 0.0, 1.0, 1.0, 0.0, 1.0, 0.0, 0.0, 0.0, 0.0, 0.0, 0.0, 0.0, 0.0, 0.0, 0.0, 0.0, 1.0, 1.0, 0.0, 0.0, 0.0, 0.0, 0.0, 0.0, 0.0, 0.0, 1.0, 1.0], "bins": [-0.5912950038909912, -0.5769159197807312, -0.5625367760658264, -0.5481576919555664, -0.5337786078453064, -0.5193995237350464, -0.5050203800201416, -0.4906412959098816, -0.4762621819972992, -0.4618830680847168, -0.4475039839744568, -0.4331248700618744, -0.418745756149292, -0.404366672039032, -0.3899875581264496, -0.3756084442138672, -0.3612293601036072, -0.34685027599334717, -0.33247116208076477, -0.3180920481681824, -0.30371296405792236, -0.28933385014533997, -0.27495473623275757, -0.26057565212249756, -0.24619653820991516, -0.23181742429733276, -0.21743834018707275, -0.20305922627449036, -0.18868011236190796, -0.17430102825164795, -0.15992191433906555, -0.14554283022880554, -0.13116371631622314, -0.11678460240364075, -0.10240551829338074, -0.08802640438079834, -0.07364732027053833, -0.059268176555633545, -0.044889092445373535, -0.030510008335113525, -0.016130924224853516, -0.0017517805099487305, 0.01262730360031128, 0.02700638771057129, 0.041385531425476074, 0.055764615535736084, 0.0701436996459961, 0.08452284336090088, 0.09890192747116089, 0.1132810115814209, 0.12766015529632568, 0.1420392394065857, 0.1564183235168457, 0.1707974672317505, 0.1851765513420105, 0.1995556354522705, 0.2139347791671753, 0.2283138632774353, 0.2426929473876953, 0.2570720314979553, 0.2714511752128601, 0.2858302593231201, 0.3002093434333801, 0.3145884871482849, 0.3289675712585449]}, "gradients/node_network.network.4.bias": {"_type": "histogram", "values": [1.0, 0.0, 0.0, 0.0, 0.0, 0.0, 0.0, 0.0, 0.0, 0.0, 0.0, 0.0, 0.0, 0.0, 0.0, 0.0, 0.0, 0.0, 0.0, 0.0, 0.0, 0.0, 0.0, 0.0, 0.0, 1.0, 0.0, 0.0, 0.0, 0.0, 0.0, 0.0, 0.0, 0.0, 0.0, 0.0, 0.0, 0.0, 0.0, 0.0, 0.0, 0.0, 0.0, 0.0, 0.0, 0.0, 0.0, 0.0, 0.0, 0.0, 0.0, 0.0, 0.0, 0.0, 1.0, 6.0, 1.0, 1.0, 2.0, 1.0, 2.0, 0.0, 0.0, 1.0], "bins": [-3.1853532791137695, -3.1275405883789062, -3.069727897644043, -3.0119152069091797, -2.9541022777557373, -2.896289587020874, -2.8384768962860107, -2.7806642055511475, -2.722851514816284, -2.665038585662842, -2.6072258949279785, -2.5494132041931152, -2.491600513458252, -2.4337878227233887, -2.3759751319885254, -2.318162441253662, -2.260349750518799, -2.2025368213653564, -2.144724130630493, -2.08691143989563, -2.0290987491607666, -1.9712859392166138, -1.9134732484817505, -1.8556605577468872, -1.7978477478027344, -1.740035057067871, -1.6822223663330078, -1.6244096755981445, -1.5665968656539917, -1.5087841749191284, -1.4509714841842651, -1.3931586742401123, -1.335345983505249, -1.2775332927703857, -1.219720482826233, -1.1619079113006592, -1.1040949821472168, -1.0462822914123535, -0.9884696006774902, -0.930656909942627, -0.8728442192077637, -0.8150315284729004, -0.757218599319458, -0.6994059085845947, -0.6415932178497314, -0.5837805271148682, -0.5259678363800049, -0.4681551456451416, -0.4103422164916992, -0.35252952575683594, -0.29471683502197266, -0.23690414428710938, -0.1790914535522461, -0.12127876281738281, -0.06346607208251953, -0.0056531429290771484, 0.05215954780578613, 0.10997223854064941, 0.1677849292755127, 0.22559762001037598, 0.28341031074523926, 0.34122323989868164, 0.3990359306335449, 0.4568486213684082, 0.5146613121032715]}, "_timestamp": 1576867661.4136178, "gradients/output_network.4.bias": {"_type": "histogram", "values": [12.0, 1.0, 0.0, 0.0, 0.0, 0.0, 0.0, 0.0, 0.0, 0.0, 0.0, 0.0, 0.0, 1.0, 0.0, 0.0, 0.0, 0.0, 0.0, 0.0, 0.0, 0.0, 0.0, 0.0, 1.0, 0.0, 0.0, 0.0, 0.0, 0.0, 0.0, 0.0, 0.0, 0.0, 0.0, 0.0, 0.0, 0.0, 1.0, 0.0, 0.0, 0.0, 0.0, 0.0, 0.0, 0.0, 0.0, 0.0, 0.0, 0.0, 0.0, 0.0, 0.0, 0.0, 0.0, 0.0, 0.0, 0.0, 0.0, 0.0, 0.0, 0.0, 0.0, 1.0], "bins": [-8.375578909181058e-05, 9.972698171623051e-05, 0.0002832097525242716, 0.0004666925233323127, 0.0006501752650365233, 0.0008336580358445644, 0.0010171408066526055, 0.0012006235774606466, 0.0013841063482686877, 0.0015675891190767288, 0.00175107188988477, 0.0019345547771081328, 0.002118037547916174, 0.002301520202308893, 0.002485003089532256, 0.002668485976755619, 0.0028519686311483383, 0.0030354512855410576, 0.0032189341727644205, 0.0034024170599877834, 0.0035858997143805027, 0.003769382368773222, 0.0039528654888272285, 0.004136348143219948, 0.004319830797612667, 0.004503313452005386, 0.004686796106398106, 0.004870279226452112, 0.0050537618808448315, 0.005237244535237551, 0.005420727655291557, 0.005604210309684277, 0.005787692964076996, 0.005971175618469715, 0.006154658272862434, 0.006338141392916441, 0.00652162404730916, 0.0067051067017018795, 0.006888589821755886, 0.007072072476148605, 0.007255555130541325, 0.007439037784934044, 0.007622520439326763, 0.007806003093719482, 0.007989486679434776, 0.008172969333827496, 0.008356451988220215, 0.008539934642612934, 0.008723417297005653, 0.008906899951398373, 0.009090382605791092, 0.009273865260183811, 0.00945734791457653, 0.009640831500291824, 0.009824314154684544, 0.010007796809077263, 0.010191279463469982, 0.010374762117862701, 0.01055824477225542, 0.01074172742664814, 0.010925211012363434, 0.011108693666756153, 0.011292176321148872, 0.011475658975541592, 0.011659141629934311]}, "gradients/output_network.2.weight": {"_type": "histogram", "values": [206.0, 19.0, 12.0, 10.0, 5.0, 4.0, 3.0, 4.0, 4.0, 3.0, 3.0, 1.0, 1.0, 2.0, 0.0, 2.0, 0.0, 0.0, 2.0, 1.0, 0.0, 0.0, 2.0, 1.0, 0.0, 0.0, 0.0, 0.0, 0.0, 0.0, 0.0, 0.0, 0.0, 1.0, 1.0, 0.0, 0.0, 0.0, 0.0, 0.0, 0.0, 0.0, 0.0, 0.0, 1.0, 0.0, 0.0, 0.0, 0.0, 0.0, 0.0, 0.0, 0.0, 0.0, 0.0, 0.0, 0.0, 0.0, 0.0, 0.0, 0.0, 0.0, 0.0, 1.0], "bins": [-0.0005497712991200387, 0.0019330908544361591, 0.004415953066200018, 0.006898815277963877, 0.009381677955389023, 0.011864540167152882, 0.01434740237891674, 0.016830265522003174, 0.019313126802444458, 0.021795988082885742, 0.024278851225972176, 0.02676171436905861, 0.029244575649499893, 0.03172743692994118, 0.03421030193567276, 0.036693163216114044, 0.03917602449655533, 0.04165888577699661, 0.0441417470574379, 0.04662461206316948, 0.049107473343610764, 0.05159033462405205, 0.05407319962978363, 0.056556060910224915, 0.0590389221906662, 0.06152178347110748, 0.06400464475154877, 0.06648750603199005, 0.06897037476301193, 0.07145323604345322, 0.0739360973238945, 0.07641895860433578, 0.07890181988477707, 0.08138468116521835, 0.08386754244565964, 0.08635040372610092, 0.0888332650065422, 0.09131613373756409, 0.09379899501800537, 0.09628185629844666, 0.09876471757888794, 0.10124757885932922, 0.10373044013977051, 0.10621330142021179, 0.10869617015123367, 0.11117903143167496, 0.11366189271211624, 0.11614475399255753, 0.11862761527299881, 0.1211104765534401, 0.12359333783388138, 0.12607619166374207, 0.12855905294418335, 0.13104191422462463, 0.13352477550506592, 0.1360076367855072, 0.13849051296710968, 0.14097337424755096, 0.14345623552799225, 0.14593909680843353, 0.14842195808887482, 0.1509048193693161, 0.15338768064975739, 0.15587054193019867, 0.15835340321063995]}, "parameters/output_network.6.weight": {"_type": "histogram", "values": [2.0, 0.0, 0.0, 0.0, 1.0, 0.0, 0.0, 0.0, 0.0, 0.0, 0.0, 1.0, 1.0, 1.0, 0.0, 1.0, 0.0, 0.0, 0.0, 0.0, 0.0, 2.0, 0.0, 0.0, 1.0, 1.0, 0.0, 1.0, 0.0, 0.0, 0.0, 0.0, 0.0, 1.0, 0.0, 0.0, 0.0, 0.0, 0.0, 2.0, 0.0, 0.0, 0.0, 0.0, 0.0, 0.0, 0.0, 0.0, 1.0, 0.0, 0.0, 0.0, 0.0, 0.0, 0.0, 0.0, 0.0, 0.0, 0.0, 0.0, 0.0, 0.0, 0.0, 1.0], "bins": [-0.19391673803329468, -0.1860664039850235, -0.17821605503559113, -0.17036572098731995, -0.16251537203788757, -0.1546650379896164, -0.14681470394134521, -0.13896435499191284, -0.13111402094364166, -0.12326367944478989, -0.11541333794593811, -0.10756300389766693, -0.09971266239881516, -0.09186232089996338, -0.0840119868516922, -0.07616164535284042, -0.06831130385398865, -0.06046096980571747, -0.052610620856285095, -0.044760286808013916, -0.03690993785858154, -0.029059603810310364, -0.021209269762039185, -0.013358920812606812, -0.005508586764335632, 0.002341747283935547, 0.01019209623336792, 0.0180424302816391, 0.02589276432991028, 0.03374311327934265, 0.04159344732761383, 0.049443796277046204, 0.05729413032531738, 0.06514447927474976, 0.07299479842185974, 0.08084514737129211, 0.08869549632072449, 0.09654581546783447, 0.10439616441726685, 0.11224651336669922, 0.12009686231613159, 0.12794718146324158, 0.13579753041267395, 0.14364787936210632, 0.1514981985092163, 0.15934854745864868, 0.16719889640808105, 0.17504921555519104, 0.1828995645046234, 0.1907499134540558, 0.19860023260116577, 0.20645058155059814, 0.21430093050003052, 0.2221512496471405, 0.23000159859657288, 0.23785194754600525, 0.24570226669311523, 0.2535526156425476, 0.26140296459198, 0.26925331354141235, 0.27710363268852234, 0.2849539816379547, 0.2928043305873871, 0.30065464973449707, 0.30850499868392944]}, "parameters/node_network.network.4.weight": {"_type": "histogram", "values": [1.0, 0.0, 0.0, 0.0, 0.0, 0.0, 0.0, 0.0, 0.0, 1.0, 0.0, 0.0, 0.0, 0.0, 0.0, 0.0, 0.0, 1.0, 0.0, 1.0, 0.0, 0.0, 1.0, 0.0, 1.0, 3.0, 3.0, 4.0, 4.0, 2.0, 5.0, 5.0, 9.0, 16.0, 22.0, 20.0, 20.0, 18.0, 29.0, 19.0, 26.0, 13.0, 10.0, 22.0, 11.0, 6.0, 2.0, 4.0, 1.0, 1.0, 1.0, 2.0, 1.0, 0.0, 0.0, 0.0, 1.0, 1.0, 0.0, 1.0, 0.0, 0.0, 0.0, 1.0], "bins": [-2.048391103744507, -1.9938889741897583, -1.9393867254257202, -1.8848845958709717, -1.8303823471069336, -1.775880217552185, -1.7213780879974365, -1.6668758392333984, -1.61237370967865, -1.5578715801239014, -1.5033693313598633, -1.4488672018051147, -1.3943650722503662, -1.3398628234863281, -1.2853606939315796, -1.230858564376831, -1.176356315612793, -1.1218540668487549, -1.0673519372940063, -1.0128498077392578, -0.9583475589752197, -0.9038454294204712, -0.8493432998657227, -0.7948410511016846, -0.740338921546936, -0.6858367919921875, -0.6313345432281494, -0.5768324136734009, -0.5223302841186523, -0.46782803535461426, -0.4133259057998657, -0.35882365703582764, -0.3043215274810791, -0.24981939792633057, -0.19531714916229248, -0.14081501960754395, -0.08631277084350586, -0.031810760498046875, 0.02269148826599121, 0.0771937370300293, 0.13169598579406738, 0.18619799613952637, 0.24070024490356445, 0.29520249366760254, 0.3497045040130615, 0.4042067527770996, 0.4587090015411377, 0.5132110118865967, 0.5677132606506348, 0.6222155094146729, 0.6767175197601318, 0.7312197685241699, 0.785722017288208, 0.840224027633667, 0.8947262763977051, 0.9492285251617432, 1.0037305355072021, 1.0582327842712402, 1.1127350330352783, 1.1672372817993164, 1.2217392921447754, 1.2762415409088135, 1.3307437896728516, 1.3852458000183105, 1.4397480487823486]}, "_runtime": 5666.852527618408, "gradients/node_network.network.4.weight": {"_type": "histogram", "values": [1.0, 0.0, 0.0, 0.0, 0.0, 0.0, 0.0, 0.0, 0.0, 0.0, 0.0, 2.0, 0.0, 0.0, 0.0, 0.0, 1.0, 0.0, 0.0, 0.0, 0.0, 0.0, 0.0, 1.0, 0.0, 1.0, 1.0, 0.0, 0.0, 1.0, 0.0, 1.0, 0.0, 0.0, 0.0, 0.0, 2.0, 0.0, 0.0, 0.0, 1.0, 0.0, 0.0, 0.0, 0.0, 0.0, 2.0, 3.0, 0.0, 1.0, 0.0, 0.0, 177.0, 57.0, 15.0, 7.0, 5.0, 5.0, 3.0, 0.0, 0.0, 0.0, 0.0, 2.0], "bins": [-1.9471442699432373, -1.9103046655654907, -1.8734649419784546, -1.836625337600708, -1.7997856140136719, -1.7629460096359253, -1.7261064052581787, -1.6892666816711426, -1.652427077293396, -1.6155873537063599, -1.5787477493286133, -1.5419080257415771, -1.5050684213638306, -1.468228816986084, -1.4313890933990479, -1.3945494890213013, -1.3577098846435547, -1.3208701610565186, -1.2840304374694824, -1.2471909523010254, -1.2103512287139893, -1.1735115051269531, -1.1366719007492065, -1.09983229637146, -1.0629925727844238, -1.0261529684066772, -0.9893133044242859, -0.9524736404418945, -0.915634036064148, -0.8787943124771118, -0.8419547080993652, -0.8051149845123291, -0.7682753801345825, -0.7314357757568359, -0.6945960521697998, -0.6577564477920532, -0.6209167242050171, -0.5840771198272705, -0.5472375154495239, -0.5103977918624878, -0.4735581874847412, -0.4367184638977051, -0.3998788595199585, -0.3630392551422119, -0.3261995315551758, -0.2893599271774292, -0.25252020359039307, -0.21568059921264648, -0.17884087562561035, -0.14200127124786377, -0.10516166687011719, -0.06832194328308105, -0.03148233890533447, 0.00535738468170166, 0.04219698905944824, 0.07903671264648438, 0.1158761978149414, 0.15271592140197754, 0.18955564498901367, 0.2263951301574707, 0.26323485374450684, 0.30007457733154297, 0.3369143009185791, 0.37375378608703613, 0.41059350967407227]}, "parameters/input_network.0.weight": {"_type": "histogram", "values": [1.0, 0.0, 0.0, 0.0, 0.0, 0.0, 0.0, 0.0, 0.0, 0.0, 0.0, 0.0, 0.0, 0.0, 0.0, 0.0, 1.0, 0.0, 0.0, 1.0, 0.0, 0.0, 1.0, 0.0, 2.0, 5.0, 2.0, 0.0, 4.0, 1.0, 2.0, 2.0, 1.0, 9.0, 2.0, 2.0, 0.0, 1.0, 1.0, 1.0, 5.0, 1.0, 2.0, 1.0, 0.0, 1.0, 0.0, 0.0, 0.0, 1.0, 0.0, 0.0, 0.0, 0.0, 0.0, 0.0, 0.0, 0.0, 0.0, 0.0, 0.0, 0.0, 0.0, 1.0], "bins": [-1.8319988250732422, -1.7775169610977173, -1.723035216331482, -1.668553352355957, -1.6140716075897217, -1.5595897436141968, -1.5051078796386719, -1.4506261348724365, -1.3961443901062012, -1.3416625261306763, -1.2871806621551514, -1.232698917388916, -1.1782170534133911, -1.1237351894378662, -1.0692534446716309, -1.0147716999053955, -0.9602898359298706, -0.9058080315589905, -0.8513262271881104, -0.7968443632125854, -0.7423626184463501, -0.6878807544708252, -0.6333990097045898, -0.5789171457290649, -0.52443528175354, -0.4699535369873047, -0.4154716730117798, -0.36098992824554443, -0.30650806427001953, -0.2520263195037842, -0.19754445552825928, -0.14306271076202393, -0.08858084678649902, -0.03409898281097412, 0.02038276195526123, 0.07486462593078613, 0.12934637069702148, 0.18382811546325684, 0.2383100986480713, 0.29279184341430664, 0.347273588180542, 0.40175557136535645, 0.4562373161315918, 0.5107190608978271, 0.5652008056640625, 0.619682788848877, 0.6741645336151123, 0.7286462783813477, 0.7831282615661621, 0.8376100063323975, 0.8920917510986328, 0.9465734958648682, 1.0010554790496826, 1.055537223815918, 1.1100189685821533, 1.1645007133483887, 1.2189826965332031, 1.2734644412994385, 1.3279461860656738, 1.3824281692504883, 1.4369099140167236, 1.491391658782959, 1.5458734035491943, 1.6003553867340088, 1.6548371315002441]}, "gradients/input_network.0.bias": {"_type": "histogram", "values": [1.0, 0.0, 0.0, 0.0, 0.0, 0.0, 0.0, 0.0, 0.0, 0.0, 0.0, 0.0, 0.0, 0.0, 0.0, 0.0, 0.0, 1.0, 0.0, 0.0, 1.0, 0.0, 0.0, 0.0, 0.0, 0.0, 0.0, 1.0, 0.0, 0.0, 0.0, 1.0, 0.0, 0.0, 0.0, 1.0, 0.0, 0.0, 1.0, 0.0, 6.0, 0.0, 1.0, 0.0, 0.0, 0.0, 0.0, 0.0, 0.0, 0.0, 0.0, 1.0, 1.0, 0.0, 0.0, 0.0, 0.0, 0.0, 0.0, 0.0, 0.0, 0.0, 0.0, 1.0], "bins": [-2.618302345275879, -2.553886651992798, -2.489471197128296, -2.425055503845215, -2.360639810562134, -2.296224355697632, -2.231808662414551, -2.1673929691314697, -2.1029775142669678, -2.0385618209838867, -1.9741462469100952, -1.9097306728363037, -1.8453149795532227, -1.7808994054794312, -1.7164838314056396, -1.6520681381225586, -1.587652564048767, -1.5232369899749756, -1.4588212966918945, -1.394405722618103, -1.3299901485443115, -1.2655744552612305, -1.201158881187439, -1.1367433071136475, -1.0723276138305664, -1.007912039756775, -0.9434964656829834, -0.8790808916091919, -0.8146651983261108, -0.7502496242523193, -0.6858340501785278, -0.6214183568954468, -0.5570027828216553, -0.4925870895385742, -0.42817163467407227, -0.3637559413909912, -0.29934024810791016, -0.2349247932434082, -0.17050909996032715, -0.1060934066772461, -0.04167795181274414, 0.022737741470336914, 0.08715343475341797, 0.15156888961791992, 0.21598458290100098, 0.28040027618408203, 0.344815731048584, 0.40923142433166504, 0.4736471176147461, 0.538062572479248, 0.6024782657623291, 0.666893720626831, 0.7313094139099121, 0.7957251071929932, 0.8601405620574951, 0.9245562553405762, 0.9889719486236572, 1.0533874034881592, 1.1178030967712402, 1.1822187900543213, 1.2466342449188232, 1.3110499382019043, 1.3754656314849854, 1.4398813247680664, 1.5042967796325684]}, "parameters/input_network.0.bias": {"_type": "histogram", "values": [1.0, 0.0, 0.0, 0.0, 1.0, 0.0, 1.0, 0.0, 0.0, 0.0, 0.0, 1.0, 0.0, 0.0, 1.0, 0.0, 0.0, 0.0, 0.0, 1.0, 0.0, 0.0, 0.0, 0.0, 0.0, 1.0, 1.0, 0.0, 0.0, 0.0, 0.0, 0.0, 1.0, 1.0, 0.0, 0.0, 0.0, 0.0, 0.0, 0.0, 1.0, 2.0, 0.0, 1.0, 1.0, 0.0, 1.0, 0.0, 0.0, 0.0, 0.0, 0.0, 0.0, 0.0, 0.0, 0.0, 0.0, 0.0, 0.0, 0.0, 0.0, 0.0, 0.0, 1.0], "bins": [-0.5169625878334045, -0.49962395429611206, -0.4822853207588196, -0.4649467170238495, -0.447608083486557, -0.4302694499492645, -0.41293084621429443, -0.39559221267700195, -0.3782535791397095, -0.360914945602417, -0.3435763120651245, -0.3262377083301544, -0.30889907479286194, -0.29156044125556946, -0.27422183752059937, -0.2568832039833069, -0.2395445704460144, -0.22220593690872192, -0.20486730337142944, -0.18752869963645935, -0.17019006609916687, -0.1528514325618744, -0.1355128288269043, -0.11817419528961182, -0.10083556175231934, -0.08349692821502686, -0.06615829467773438, -0.04881969094276428, -0.0314810574054718, -0.014142453670501709, 0.0031961798667907715, 0.020534813404083252, 0.03787344694137573, 0.05521208047866821, 0.0725507140159607, 0.08988934755325317, 0.10722798109054565, 0.12456655502319336, 0.14190518856048584, 0.15924382209777832, 0.1765824556350708, 0.19392108917236328, 0.21125972270965576, 0.22859835624694824, 0.24593693017959595, 0.2632755637168884, 0.2806141972541809, 0.2979528307914734, 0.31529146432876587, 0.33263009786605835, 0.34996873140335083, 0.3673073649406433, 0.3846459984779358, 0.4019845724105835, 0.419323205947876, 0.43666183948516846, 0.45400047302246094, 0.4713391065597534, 0.4886776804924011, 0.5060163140296936, 0.5233549475669861, 0.5406935811042786, 0.558032214641571, 0.5753708481788635, 0.592709481716156]}, "gradients/output_network.6.weight": {"_type": "histogram", "values": [13.0, 0.0, 0.0, 0.0, 0.0, 0.0, 0.0, 0.0, 0.0, 0.0, 0.0, 0.0, 0.0, 0.0, 0.0, 0.0, 0.0, 0.0, 0.0, 0.0, 0.0, 0.0, 1.0, 0.0, 0.0, 0.0, 0.0, 0.0, 0.0, 0.0, 0.0, 0.0, 0.0, 0.0, 0.0, 0.0, 0.0, 0.0, 1.0, 0.0, 0.0, 0.0, 0.0, 0.0, 0.0, 0.0, 1.0, 0.0, 0.0, 0.0, 0.0, 0.0, 0.0, 0.0, 0.0, 0.0, 0.0, 0.0, 0.0, 0.0, 0.0, 0.0, 0.0, 1.0], "bins": [-0.0001545518753118813, 0.008944674395024776, 0.01804390177130699, 0.027143128216266632, 0.03624235466122627, 0.04534158110618591, 0.054440807551145554, 0.0635400265455246, 0.07263925671577454, 0.08173848688602448, 0.09083770960569382, 0.09993693232536316, 0.1090361624956131, 0.11813539266586304, 0.12723460793495178, 0.13633383810520172, 0.14543306827545166, 0.1545322984457016, 0.16363152861595154, 0.17273074388504028, 0.18182997405529022, 0.19092920422554016, 0.2000284194946289, 0.20912764966487885, 0.21822687983512878, 0.22732611000537872, 0.23642534017562866, 0.2455245554447174, 0.25462377071380615, 0.2637230157852173, 0.27282223105430603, 0.28192147612571716, 0.2910206913948059, 0.30011990666389465, 0.3092191517353058, 0.31831836700439453, 0.32741761207580566, 0.3365168273448944, 0.34561604261398315, 0.3547152876853943, 0.36381450295448303, 0.3729137182235718, 0.3820129632949829, 0.39111217856407166, 0.4002113938331604, 0.40931063890457153, 0.4184098541736603, 0.4275090992450714, 0.43660831451416016, 0.4457075297832489, 0.45480677485466003, 0.4639059901237488, 0.4730052351951599, 0.48210445046424866, 0.4912036657333374, 0.5003029108047485, 0.5094020962715149, 0.518501341342926, 0.5276005864143372, 0.5366998314857483, 0.5457990169525146, 0.5548982620239258, 0.5639975070953369, 0.5730966925621033, 0.5821959376335144]}, "parameters/node_network.network.6.weight": {"_type": "histogram", "values": [1.0, 1.0, 0.0, 0.0, 0.0, 0.0, 0.0, 0.0, 0.0, 0.0, 0.0, 1.0, 0.0, 0.0, 0.0, 2.0, 0.0, 1.0, 0.0, 1.0, 2.0, 3.0, 1.0, 4.0, 5.0, 17.0, 19.0, 17.0, 26.0, 20.0, 15.0, 21.0, 26.0, 19.0, 25.0, 12.0, 9.0, 12.0, 7.0, 4.0, 4.0, 1.0, 2.0, 3.0, 0.0, 0.0, 0.0, 0.0, 0.0, 3.0, 0.0, 0.0, 0.0, 1.0, 2.0, 0.0, 0.0, 0.0, 0.0, 0.0, 1.0, 0.0, 0.0, 1.0], "bins": [-1.539359211921692, -1.4878209829330444, -1.436282753944397, -1.384744644165039, -1.3332064151763916, -1.2816681861877441, -1.2301299571990967, -1.1785917282104492, -1.1270534992218018, -1.0755152702331543, -1.0239770412445068, -0.9724388718605042, -0.9209007024765015, -0.869362473487854, -0.8178242444992065, -0.7662860751152039, -0.7147478461265564, -0.6632096171379089, -0.6116714477539062, -0.5601332187652588, -0.5085949897766113, -0.45705676078796387, -0.4055185317993164, -0.3539804220199585, -0.30244219303131104, -0.2509039640426636, -0.1993657350540161, -0.14782750606536865, -0.09628927707672119, -0.04475116729736328, 0.00678706169128418, 0.05832529067993164, 0.1098635196685791, 0.16140174865722656, 0.21293997764587402, 0.2644782066345215, 0.3160163164138794, 0.36755454540252686, 0.4190927743911743, 0.4706310033798218, 0.5221692323684692, 0.5737074613571167, 0.6252456903457642, 0.6767839193344116, 0.7283221483230591, 0.7798601388931274, 0.8313983678817749, 0.8829365968704224, 0.9344748258590698, 0.9860130548477173, 1.0375512838363647, 1.0890895128250122, 1.1406277418136597, 1.1921659708023071, 1.2437041997909546, 1.295242428779602, 1.3467806577682495, 1.398318886756897, 1.4498568773269653, 1.5013951063156128, 1.5529333353042603, 1.6044715642929077, 1.6560097932815552, 1.7075480222702026, 1.75908625125885]}, "gradients/node_network.network.6.weight": {"_type": "histogram", "values": [1.0, 0.0, 0.0, 0.0, 0.0, 0.0, 0.0, 0.0, 0.0, 0.0, 0.0, 0.0, 0.0, 0.0, 0.0, 0.0, 0.0, 0.0, 0.0, 0.0, 0.0, 0.0, 0.0, 0.0, 0.0, 0.0, 1.0, 0.0, 0.0, 0.0, 0.0, 0.0, 0.0, 1.0, 0.0, 2.0, 0.0, 0.0, 0.0, 3.0, 2.0, 1.0, 3.0, 5.0, 167.0, 33.0, 18.0, 21.0, 6.0, 6.0, 9.0, 3.0, 1.0, 0.0, 1.0, 1.0, 1.0, 1.0, 0.0, 1.0, 0.0, 0.0, 0.0, 1.0], "bins": [-0.7103763818740845, -0.6943824887275696, -0.6783885955810547, -0.6623947024345398, -0.6464008092880249, -0.63040691614151, -0.6144130229949951, -0.598419189453125, -0.5824252367019653, -0.5664314031600952, -0.5504374504089355, -0.5344436168670654, -0.5184497237205505, -0.5024558305740356, -0.48646193742752075, -0.47046804428100586, -0.45447415113449097, -0.4384802579879761, -0.4224863648414612, -0.4064924716949463, -0.3904985785484314, -0.3745047152042389, -0.358510822057724, -0.3425169289112091, -0.3265230357646942, -0.3105291426181793, -0.29453524947166443, -0.27854135632514954, -0.26254749298095703, -0.24655359983444214, -0.23055970668792725, -0.21456581354141235, -0.19857192039489746, -0.18257802724838257, -0.16658413410186768, -0.15059024095535278, -0.1345963478088379, -0.118602454662323, -0.1026085615158081, -0.08661466836929321, -0.07062077522277832, -0.0546269416809082, -0.03863304853439331, -0.022639155387878418, -0.006645262241363525, 0.009348630905151367, 0.02534252405166626, 0.04133641719818115, 0.057330310344696045, 0.07332420349121094, 0.08931809663772583, 0.10531198978424072, 0.12130588293075562, 0.1372997760772705, 0.1532936692237854, 0.1692875623703003, 0.1852813959121704, 0.2012752890586853, 0.2172691822052002, 0.2332630753517151, 0.24925696849822998, 0.2652508616447449, 0.28124475479125977, 0.29723870754241943, 0.31323254108428955]}, "_step": 156, "gradients/node_network.network.0.bias": {"_type": "histogram", "values": [1.0, 0.0, 0.0, 0.0, 0.0, 0.0, 0.0, 0.0, 0.0, 0.0, 0.0, 0.0, 0.0, 0.0, 0.0, 0.0, 0.0, 0.0, 0.0, 0.0, 0.0, 0.0, 0.0, 0.0, 0.0, 1.0, 1.0, 0.0, 0.0, 0.0, 0.0, 1.0, 1.0, 0.0, 0.0, 1.0, 4.0, 1.0, 0.0, 1.0, 0.0, 0.0, 1.0, 0.0, 0.0, 0.0, 1.0, 0.0, 0.0, 1.0, 0.0, 0.0, 1.0, 0.0, 0.0, 0.0, 0.0, 0.0, 0.0, 0.0, 0.0, 0.0, 0.0, 1.0], "bins": [-1.2255209684371948, -1.191620945930481, -1.157720923423767, -1.1238207817077637, -1.0899207592010498, -1.056020736694336, -1.022120714187622, -0.9882206916809082, -0.9543206691741943, -0.9204205870628357, -0.8865205645561218, -0.8526204824447632, -0.8187204599380493, -0.7848204374313354, -0.7509204149246216, -0.7170203328132629, -0.6831203103065491, -0.6492202877998352, -0.6153202056884766, -0.5814201831817627, -0.5475201606750488, -0.5136200785636902, -0.4797200560569763, -0.44582003355026245, -0.4119199514389038, -0.37801992893218994, -0.3441199064254761, -0.3102198839187622, -0.27631980180740356, -0.2424197793006897, -0.20851969718933105, -0.1746196746826172, -0.14071965217590332, -0.10681962966918945, -0.07291960716247559, -0.03901958465576172, -0.005119442939758301, 0.028780579566955566, 0.06268060207366943, 0.0965806245803833, 0.13048064708709717, 0.16438066959381104, 0.19828081130981445, 0.23218083381652832, 0.2660808563232422, 0.29998087882995605, 0.3338809013366699, 0.3677809238433838, 0.4016810655593872, 0.4355810880661011, 0.46948111057281494, 0.5033811330795288, 0.5372811555862427, 0.5711811780929565, 0.6050812005996704, 0.6389813423156738, 0.6728813648223877, 0.7067813873291016, 0.7406814098358154, 0.7745815515518188, 0.8084815740585327, 0.8423815965652466, 0.8762816190719604, 0.9101816415786743, 0.9440816640853882]}, "gradients/input_network.0.weight": {"_type": "histogram", "values": [1.0, 0.0, 0.0, 0.0, 0.0, 0.0, 1.0, 0.0, 0.0, 0.0, 0.0, 0.0, 0.0, 0.0, 0.0, 0.0, 0.0, 1.0, 1.0, 0.0, 1.0, 0.0, 0.0, 0.0, 2.0, 0.0, 1.0, 0.0, 0.0, 2.0, 2.0, 1.0, 2.0, 0.0, 1.0, 3.0, 20.0, 1.0, 1.0, 0.0, 1.0, 1.0, 1.0, 2.0, 1.0, 0.0, 0.0, 0.0, 1.0, 0.0, 0.0, 0.0, 0.0, 0.0, 0.0, 0.0, 0.0, 0.0, 1.0, 0.0, 1.0, 0.0, 0.0, 1.0], "bins": [-1.593062400817871, -1.5491770505905151, -1.5052918195724487, -1.4614064693450928, -1.4175211191177368, -1.3736357688903809, -1.3297505378723145, -1.2858651876449585, -1.2419798374176025, -1.1980946063995361, -1.1542092561721802, -1.1103239059448242, -1.0664386749267578, -1.0225532054901123, -0.9786679744720459, -0.9347826242446899, -0.8908973336219788, -0.8470120429992676, -0.8031266927719116, -0.7592414021492004, -0.7153560519218445, -0.6714707612991333, -0.6275854110717773, -0.5837000608444214, -0.539814829826355, -0.495929479598999, -0.45204412937164307, -0.40815889835357666, -0.3642735481262207, -0.32038819789886475, -0.2765028476715088, -0.23261761665344238, -0.18873226642608643, -0.14484691619873047, -0.10096168518066406, -0.057076334953308105, -0.013190984725952148, 0.03069436550140381, 0.07457959651947021, 0.11846494674682617, 0.16235029697418213, 0.20623552799224854, 0.2501208782196045, 0.29400622844696045, 0.3378915786743164, 0.3817768096923828, 0.4256622791290283, 0.4695475101470947, 0.5134327411651611, 0.5573182106018066, 0.601203441619873, 0.6450886726379395, 0.688974142074585, 0.7328593730926514, 0.7767446041107178, 0.8206300735473633, 0.8645153045654297, 0.9084005355834961, 0.9522860050201416, 0.996171236038208, 1.0400567054748535, 1.08394193649292, 1.1278271675109863, 1.1717126369476318, 1.2155978679656982]}, "Learning Rate": 7.2922167491837e-05, "gradients/node_network.network.2.weight": {"_type": "histogram", "values": [2.0, 0.0, 0.0, 0.0, 0.0, 0.0, 0.0, 0.0, 0.0, 0.0, 0.0, 0.0, 0.0, 0.0, 1.0, 1.0, 0.0, 0.0, 0.0, 0.0, 1.0, 0.0, 0.0, 2.0, 0.0, 1.0, 1.0, 2.0, 6.0, 4.0, 13.0, 206.0, 21.0, 9.0, 5.0, 2.0, 1.0, 2.0, 1.0, 2.0, 1.0, 1.0, 0.0, 1.0, 0.0, 0.0, 1.0, 0.0, 0.0, 0.0, 0.0, 0.0, 1.0, 0.0, 0.0, 0.0, 0.0, 0.0, 0.0, 0.0, 0.0, 0.0, 0.0, 1.0], "bins": [-1.8591080904006958, -1.7996503114700317, -1.7401924133300781, -1.680734634399414, -1.62127685546875, -1.5618189573287964, -1.5023611783981323, -1.4429032802581787, -1.3834455013275146, -1.3239877223968506, -1.264529824256897, -1.205072045326233, -1.1456141471862793, -1.0861563682556152, -1.0266985893249512, -0.9672407507896423, -0.9077829122543335, -0.8483251333236694, -0.7888672351837158, -0.7294094562530518, -0.6699515581130981, -0.6104937791824341, -0.55103600025177, -0.4915781021118164, -0.43212032318115234, -0.3726625442504883, -0.31320464611053467, -0.2537468671798706, -0.19428908824920654, -0.13483119010925293, -0.07537341117858887, -0.015915513038635254, 0.04354226589202881, 0.10300004482269287, 0.16245782375335693, 0.2219158411026001, 0.28137362003326416, 0.3408313989639282, 0.4002891778945923, 0.45974695682525635, 0.5192049741744995, 0.5786627531051636, 0.6381205320358276, 0.6975783109664917, 0.7570360898971558, 0.8164938688278198, 0.875951886177063, 0.935409665107727, 0.9948674440383911, 1.0543252229690552, 1.1137830018997192, 1.1732410192489624, 1.2326987981796265, 1.2921565771102905, 1.3516143560409546, 1.4110721349716187, 1.4705299139022827, 1.5299879312515259, 1.58944571018219, 1.648903489112854, 1.708361268043518, 1.7678190469741821, 1.8272770643234253, 1.8867348432540894, 1.9461926221847534]}, "parameters/output_network.4.bias": {"_type": "histogram", "values": [1.0, 0.0, 0.0, 0.0, 0.0, 0.0, 0.0, 0.0, 0.0, 0.0, 0.0, 1.0, 0.0, 0.0, 0.0, 1.0, 1.0, 0.0, 0.0, 0.0, 0.0, 0.0, 0.0, 0.0, 1.0, 0.0, 0.0, 0.0, 0.0, 1.0, 1.0, 1.0, 0.0, 0.0, 0.0, 0.0, 1.0, 0.0, 1.0, 0.0, 0.0, 0.0, 1.0, 1.0, 0.0, 0.0, 1.0, 0.0, 0.0, 0.0, 0.0, 1.0, 0.0, 1.0, 0.0, 1.0, 0.0, 0.0, 0.0, 0.0, 0.0, 0.0, 0.0, 1.0], "bins": [-0.31288427114486694, -0.30383414030075073, -0.2947840392589569, -0.2857339084148407, -0.2766838073730469, -0.26763367652893066, -0.25858354568481445, -0.24953344464302063, -0.24048331379890442, -0.2314332127571106, -0.22238308191299438, -0.21333296597003937, -0.20428285002708435, -0.19523271918296814, -0.18618260324001312, -0.1771324872970581, -0.1680823713541031, -0.15903225541114807, -0.14998213946819305, -0.14093200862407684, -0.13188189268112183, -0.12283177673816681, -0.11378166079521179, -0.10473154485225677, -0.09568142890930176, -0.08663129806518555, -0.07758118212223053, -0.06853106617927551, -0.0594809353351593, -0.05043083429336548, -0.04138070344924927, -0.032330602407455444, -0.023280471563339233, -0.014230340719223022, -0.005180239677429199, 0.0038698911666870117, 0.012919992208480835, 0.021970123052597046, 0.031020253896713257, 0.04007035493850708, 0.04912048578262329, 0.058170586824417114, 0.06722071766853333, 0.07627084851264954, 0.08532094955444336, 0.09437108039855957, 0.1034211814403534, 0.1124713122844696, 0.12152141332626343, 0.13057154417037964, 0.13962167501449585, 0.14867177605628967, 0.15772190690040588, 0.1667720079421997, 0.17582213878631592, 0.18487226963043213, 0.19392240047454834, 0.20297247171401978, 0.212022602558136, 0.2210727334022522, 0.2301228642463684, 0.23917299509048462, 0.24822306632995605, 0.25727319717407227, 0.2663233280181885]}, "Best Accuracy": 0.3451642806387269, "gradients/output_network.2.bias": {"_type": "histogram", "values": [1.0, 0.0, 0.0, 7.0, 0.0, 2.0, 0.0, 0.0, 0.0, 0.0, 0.0, 0.0, 1.0, 0.0, 1.0, 0.0, 0.0, 0.0, 0.0, 1.0, 0.0, 0.0, 0.0, 1.0, 0.0, 0.0, 1.0, 0.0, 0.0, 0.0, 0.0, 0.0, 0.0, 0.0, 0.0, 0.0, 0.0, 1.0, 0.0, 0.0, 0.0, 0.0, 0.0, 0.0, 0.0, 0.0, 0.0, 0.0, 0.0, 0.0, 0.0, 0.0, 0.0, 0.0, 0.0, 0.0, 0.0, 0.0, 0.0, 0.0, 0.0, 0.0, 0.0, 1.0], "bins": [-0.0007629642495885491, -0.000543051864951849, -0.0003231394221074879, -0.00010322697926312685, 0.0001166854053735733, 0.00033659779001027346, 0.0005565102910622954, 0.0007764226756989956, 0.0009963350603356957, 0.0012162475613877177, 0.001436159829609096, 0.001656072330661118, 0.00187598483171314, 0.00209589721634984, 0.0023158094845712185, 0.002535721752792597, 0.0027556344866752625, 0.0029755467548966408, 0.0031954594887793064, 0.0034153717570006847, 0.003635284025222063, 0.0038551967591047287, 0.004075109027326107, 0.004295021295547485, 0.004514934029430151, 0.004734846297651529, 0.004954758565872908, 0.005174670834094286, 0.005394583567976952, 0.00561449583619833, 0.005834408104419708, 0.006054320838302374, 0.006274233106523752, 0.0064941453747451305, 0.006714058108627796, 0.0069339703768491745, 0.00715388311073184, 0.0073737953789532185, 0.007593707647174597, 0.007813619449734688, 0.008033531717956066, 0.008253443986177444, 0.008473357185721397, 0.008693269453942776, 0.008913181722164154, 0.009133093990385532, 0.00935300625860691, 0.009572918526828289, 0.009792831726372242, 0.01001274399459362, 0.010232656262814999, 0.010452568531036377, 0.010672480799257755, 0.010892393067479134, 0.011112305335700512, 0.011332218535244465, 0.011552130803465843, 0.011772043071687222, 0.0119919553399086, 0.012211867608129978, 0.012431779876351357, 0.01265169307589531, 0.012871605344116688, 0.013091517612338066, 0.013311429880559444]}, "gradients/output_network.4.weight": {"_type": "histogram", "values": [254.0, 5.0, 2.0, 0.0, 0.0, 1.0, 1.0, 0.0, 0.0, 3.0, 1.0, 1.0, 1.0, 0.0, 2.0, 1.0, 2.0, 0.0, 0.0, 1.0, 1.0, 0.0, 0.0, 1.0, 2.0, 0.0, 1.0, 1.0, 0.0, 0.0, 0.0, 1.0, 1.0, 0.0, 0.0, 0.0, 0.0, 0.0, 1.0, 1.0, 0.0, 0.0, 0.0, 1.0, 0.0, 0.0, 0.0, 0.0, 0.0, 0.0, 0.0, 1.0, 0.0, 1.0, 0.0, 0.0, 0.0, 0.0, 0.0, 0.0, 0.0, 0.0, 0.0, 1.0], "bins": [-0.00013471118290908635, 0.0016593912150710821, 0.00345349358394742, 0.0052475957199931145, 0.007041698321700096, 0.008835800923407078, 0.010629902593791485, 0.012424005195498466, 0.014218107797205448, 0.01601220853626728, 0.017806312069296837, 0.019600413739681244, 0.02139451541006565, 0.023188618943095207, 0.024982720613479614, 0.02677682414650917, 0.028570925816893578, 0.030365027487277985, 0.03215913102030754, 0.0339532345533371, 0.03574733808636665, 0.03754143789410591, 0.03933554142713547, 0.041129644960165024, 0.04292374476790428, 0.04471784830093384, 0.046511951833963394, 0.04830605536699295, 0.05010015517473221, 0.051894258707761765, 0.05368836224079132, 0.05548246204853058, 0.057276565581560135, 0.05907066911458969, 0.06086476892232895, 0.0626588687300682, 0.06445296853780746, 0.06624707579612732, 0.06804117560386658, 0.06983527541160583, 0.07162938266992569, 0.07342348247766495, 0.0752175822854042, 0.07701168954372406, 0.07880578935146332, 0.08059988915920258, 0.08239399641752243, 0.08418809622526169, 0.08598219603300095, 0.0877763032913208, 0.08957040309906006, 0.09136451035737991, 0.09315861016511917, 0.09495270997285843, 0.09674681723117828, 0.09854091703891754, 0.1003350168466568, 0.10212912410497665, 0.10392322391271591, 0.10571732372045517, 0.10751143097877502, 0.10930553078651428, 0.11109963059425354, 0.1128937378525734, 0.11468783766031265]}, "parameters/node_network.network.0.weight": {"_type": "histogram", "values": [1.0, 0.0, 0.0, 0.0, 0.0, 0.0, 0.0, 0.0, 0.0, 0.0, 0.0, 0.0, 0.0, 0.0, 0.0, 1.0, 0.0, 0.0, 1.0, 2.0, 1.0, 1.0, 5.0, 7.0, 6.0, 1.0, 3.0, 4.0, 10.0, 5.0, 13.0, 14.0, 31.0, 36.0, 45.0, 75.0, 114.0, 155.0, 175.0, 237.0, 224.0, 178.0, 114.0, 66.0, 39.0, 40.0, 29.0, 16.0, 11.0, 6.0, 8.0, 4.0, 4.0, 2.0, 4.0, 2.0, 4.0, 2.0, 1.0, 0.0, 0.0, 2.0, 0.0, 1.0], "bins": [-2.066474676132202, -2.014021873474121, -1.96156907081604, -1.909116268157959, -1.8566635847091675, -1.8042107820510864, -1.7517579793930054, -1.6993051767349243, -1.6468524932861328, -1.5943996906280518, -1.5419468879699707, -1.4894940853118896, -1.4370412826538086, -1.3845884799957275, -1.3321356773376465, -1.279682993888855, -1.227230191230774, -1.1747773885726929, -1.1223247051239014, -1.0698719024658203, -1.0174190998077393, -0.9649662971496582, -0.9125134944915771, -0.8600606918334961, -0.807607889175415, -0.7551552057266235, -0.7027024030685425, -0.6502496004104614, -0.5977967977523804, -0.5453439950942993, -0.4928913116455078, -0.44043850898742676, -0.3879857063293457, -0.33553290367126465, -0.2830801010131836, -0.2306274175643921, -0.17817461490631104, -0.12572181224822998, -0.07326900959014893, -0.020816326141357422, 0.03163647651672363, 0.08408927917480469, 0.13654208183288574, 0.1889948844909668, 0.24144768714904785, 0.2939004898071289, 0.34635329246520996, 0.398806095123291, 0.45125889778137207, 0.503711462020874, 0.5561642646789551, 0.6086170673370361, 0.6610698699951172, 0.7135226726531982, 0.7659754753112793, 0.8184282779693604, 0.8708810806274414, 0.9233338832855225, 0.9757866859436035, 1.0282392501831055, 1.0806920528411865, 1.1331448554992676, 1.1855976581573486, 1.2380504608154297, 1.2905032634735107]}, "parameters/node_network.network.2.bias": {"_type": "histogram", "values": [1.0, 1.0, 0.0, 0.0, 0.0, 0.0, 1.0, 1.0, 0.0, 1.0, 1.0, 0.0, 0.0, 0.0, 0.0, 0.0, 0.0, 0.0, 0.0, 0.0, 0.0, 1.0, 2.0, 1.0, 0.0, 1.0, 0.0, 0.0, 0.0, 0.0, 0.0, 0.0, 0.0, 0.0, 0.0, 0.0, 0.0, 1.0, 2.0, 0.0, 0.0, 0.0, 1.0, 0.0, 1.0, 0.0, 0.0, 0.0, 0.0, 0.0, 0.0, 0.0, 0.0, 0.0, 0.0, 0.0, 0.0, 0.0, 0.0, 0.0, 0.0, 0.0, 0.0, 1.0], "bins": [-0.17258179187774658, -0.16375397145748138, -0.1549261510372162, -0.14609834551811218, -0.13727052509784698, -0.1284427046775818, -0.11961489170789719, -0.11078707873821259, -0.10195925831794739, -0.09313143789768219, -0.08430362492799759, -0.07547581195831299, -0.06664799153804779, -0.05782017111778259, -0.04899235814809799, -0.04016454517841339, -0.03133672475814819, -0.022508904337882996, -0.013681083917617798, -0.004853278398513794, 0.003974542021751404, 0.012802362442016602, 0.021630167961120605, 0.030457988381385803, 0.039285808801651, 0.0481136292219162, 0.056941449642181396, 0.0657692551612854, 0.0745970755815506, 0.0834248960018158, 0.0922527015209198, 0.10108053684234619, 0.1099083423614502, 0.1187361478805542, 0.1275639832019806, 0.1363917887210846, 0.145219624042511, 0.154047429561615, 0.162875235080719, 0.17170307040214539, 0.1805308759212494, 0.1893586814403534, 0.19818651676177979, 0.2070143222808838, 0.2158421277999878, 0.22466996312141418, 0.2334977686405182, 0.24232560396194458, 0.2511534094810486, 0.2599812150001526, 0.268809050321579, 0.277636855840683, 0.2864646911621094, 0.2952924966812134, 0.3041203022003174, 0.3129481375217438, 0.3217759430408478, 0.33060377836227417, 0.3394315838813782, 0.3482593894004822, 0.3570871949195862, 0.3659150004386902, 0.37474286556243896, 0.38357067108154297, 0.392398476600647]}, "parameters/node_network.network.6.bias": {"_type": "histogram", "values": [1.0, 0.0, 0.0, 0.0, 0.0, 0.0, 0.0, 0.0, 0.0, 0.0, 1.0, 0.0, 0.0, 0.0, 1.0, 0.0, 0.0, 1.0, 0.0, 0.0, 0.0, 1.0, 0.0, 1.0, 1.0, 0.0, 0.0, 0.0, 1.0, 0.0, 1.0, 0.0, 0.0, 0.0, 0.0, 1.0, 0.0, 1.0, 0.0, 0.0, 0.0, 0.0, 1.0, 0.0, 0.0, 0.0, 0.0, 0.0, 0.0, 1.0, 0.0, 0.0, 0.0, 1.0, 0.0, 0.0, 0.0, 1.0, 0.0, 1.0, 0.0, 0.0, 0.0, 1.0], "bins": [-0.30119550228118896, -0.29326021671295166, -0.28532493114471436, -0.27738961577415466, -0.26945433020591736, -0.26151904463768005, -0.25358372926712036, -0.24564844369888306, -0.23771315813064575, -0.22977787256240845, -0.22184257209300995, -0.21390727162361145, -0.20597198605537415, -0.19803670048713684, -0.19010140001773834, -0.18216609954833984, -0.17423081398010254, -0.16629552841186523, -0.15836022794246674, -0.15042492747306824, -0.14248964190483093, -0.13455435633659363, -0.12661905586719513, -0.11868375539779663, -0.11074846982955933, -0.10281318426132202, -0.09487788379192352, -0.08694258332252502, -0.07900729775428772, -0.07107201218605042, -0.06313671171665192, -0.05520141124725342, -0.04726612567901611, -0.03933084011077881, -0.031395554542541504, -0.02346023917198181, -0.015524953603744507, -0.007589668035507202, 0.00034564733505249023, 0.008280932903289795, 0.0162162184715271, 0.024151504039764404, 0.03208678960800171, 0.0400221049785614, 0.047957390546798706, 0.05589267611503601, 0.0638279914855957, 0.07176327705383301, 0.07969856262207031, 0.08763384819030762, 0.09556913375854492, 0.10350444912910461, 0.11143973469734192, 0.11937502026557922, 0.12731033563613892, 0.13524562120437622, 0.14318090677261353, 0.15111619234085083, 0.15905147790908813, 0.16698679327964783, 0.17492207884788513, 0.18285736441612244, 0.19079267978668213, 0.19872796535491943, 0.20666325092315674]}, "Validation Loss": 0.8005198478698731, "parameters/output_network.2.weight": {"_type": "histogram", "values": [1.0, 0.0, 0.0, 0.0, 0.0, 0.0, 0.0, 0.0, 0.0, 0.0, 0.0, 0.0, 0.0, 0.0, 0.0, 0.0, 0.0, 0.0, 0.0, 0.0, 0.0, 0.0, 0.0, 2.0, 0.0, 1.0, 0.0, 4.0, 5.0, 4.0, 7.0, 12.0, 12.0, 12.0, 12.0, 16.0, 15.0, 11.0, 21.0, 13.0, 17.0, 23.0, 13.0, 15.0, 11.0, 13.0, 11.0, 6.0, 10.0, 4.0, 5.0, 0.0, 3.0, 3.0, 2.0, 2.0, 1.0, 1.0, 0.0, 0.0, 0.0, 0.0, 0.0, 1.0], "bins": [-1.0933808088302612, -1.065128207206726, -1.0368757247924805, -1.0086231231689453, -0.9803705215454102, -0.9521179795265198, -0.9238654375076294, -0.8956128358840942, -0.8673602342605591, -0.8391076922416687, -0.8108551502227783, -0.7826025485992432, -0.7543500065803528, -0.7260974645614624, -0.6978448629379272, -0.6695922613143921, -0.6413397192955017, -0.6130871772766113, -0.5848345756530762, -0.5565820336341858, -0.5283294320106506, -0.5000768899917603, -0.4718242883682251, -0.4435717463493347, -0.41531920433044434, -0.3870666027069092, -0.3588140606880188, -0.33056145906448364, -0.30230891704559326, -0.2740563154220581, -0.24580377340316772, -0.21755117177963257, -0.1892986297607422, -0.1610460877418518, -0.13279348611831665, -0.10454094409942627, -0.07628834247589111, -0.04803574085235596, -0.01978325843811035, 0.008469343185424805, 0.03672194480895996, 0.06497442722320557, 0.09322702884674072, 0.12147963047027588, 0.14973223209381104, 0.17798471450805664, 0.2062373161315918, 0.23448991775512695, 0.26274240016937256, 0.2909950017929077, 0.31924760341644287, 0.347500205039978, 0.37575268745422363, 0.4040052890777588, 0.43225789070129395, 0.4605104923248291, 0.4887629747390747, 0.5170155763626099, 0.545268177986145, 0.5735206604003906, 0.6017732620239258, 0.6300258636474609, 0.6582784652709961, 0.6865309476852417, 0.7147835493087769]}, "gradients/node_network.network.6.bias": {"_type": "histogram", "values": [1.0, 0.0, 0.0, 0.0, 0.0, 0.0, 0.0, 0.0, 0.0, 0.0, 1.0, 0.0, 0.0, 0.0, 0.0, 0.0, 0.0, 0.0, 0.0, 0.0, 0.0, 0.0, 0.0, 1.0, 0.0, 0.0, 0.0, 5.0, 1.0, 1.0, 3.0, 1.0, 0.0, 0.0, 0.0, 0.0, 0.0, 0.0, 0.0, 0.0, 0.0, 0.0, 0.0, 0.0, 0.0, 0.0, 0.0, 0.0, 0.0, 0.0, 0.0, 0.0, 0.0, 0.0, 1.0, 0.0, 0.0, 0.0, 0.0, 0.0, 0.0, 0.0, 0.0, 2.0], "bins": [-1.419651985168457, -1.368679404258728, -1.317706823348999, -1.2667343616485596, -1.2157617807388306, -1.1647891998291016, -1.1138166189193726, -1.0628440380096436, -1.011871576309204, -0.9608989953994751, -0.9099264144897461, -0.8589538335800171, -0.8079812526702881, -0.7570087313652039, -0.7060361504554749, -0.6550636291503906, -0.6040910482406616, -0.5531184673309326, -0.5021459460258484, -0.4511733651161194, -0.40020084381103516, -0.34922826290130615, -0.29825568199157715, -0.24728310108184814, -0.19631052017211914, -0.1453380584716797, -0.09436547756195068, -0.04339289665222168, 0.007579684257507324, 0.05855226516723633, 0.10952472686767578, 0.16049730777740479, 0.2114698886871338, 0.2624424695968628, 0.3134150505065918, 0.36438751220703125, 0.41536009311676025, 0.46633267402648926, 0.5173052549362183, 0.5682778358459473, 0.6192502975463867, 0.6702229976654053, 0.7211954593658447, 0.7721679210662842, 0.8231406211853027, 0.8741130828857422, 0.9250857830047607, 0.9760582447052002, 1.0270309448242188, 1.0780034065246582, 1.1289758682250977, 1.1799485683441162, 1.2309210300445557, 1.2818937301635742, 1.3328661918640137, 1.3838386535644531, 1.4348113536834717, 1.4857838153839111, 1.5367565155029297, 1.5877289772033691, 1.6387014389038086, 1.6896741390228271, 1.7406466007232666, 1.7916193008422852, 1.8425917625427246]}, "gradients/node_network.network.2.bias": {"_type": "histogram", "values": [1.0, 0.0, 0.0, 0.0, 0.0, 0.0, 0.0, 0.0, 0.0, 0.0, 0.0, 0.0, 0.0, 0.0, 0.0, 0.0, 0.0, 0.0, 0.0, 1.0, 1.0, 0.0, 0.0, 0.0, 0.0, 0.0, 1.0, 0.0, 0.0, 0.0, 0.0, 0.0, 0.0, 0.0, 0.0, 3.0, 3.0, 0.0, 1.0, 0.0, 0.0, 0.0, 0.0, 2.0, 0.0, 1.0, 1.0, 0.0, 0.0, 1.0, 0.0, 0.0, 0.0, 0.0, 0.0, 0.0, 0.0, 0.0, 0.0, 0.0, 0.0, 0.0, 0.0, 1.0], "bins": [-1.5653592348098755, -1.5214049816131592, -1.4774507284164429, -1.4334964752197266, -1.3895421028137207, -1.3455878496170044, -1.301633596420288, -1.2576793432235718, -1.2137250900268555, -1.1697708368301392, -1.1258165836334229, -1.081862211227417, -1.0379080772399902, -0.9939537644386292, -0.9499994516372681, -0.9060451984405518, -0.8620909452438354, -0.8181366920471191, -0.7741824388504028, -0.7302281260490417, -0.6862738728523254, -0.6423196196556091, -0.598365306854248, -0.5544110536575317, -0.5104568004608154, -0.4665025472640991, -0.4225482940673828, -0.3785940408706665, -0.33463966846466064, -0.29068541526794434, -0.24673116207122803, -0.20277690887451172, -0.1588226556777954, -0.1148684024810791, -0.07091414928436279, -0.026959896087646484, 0.016994357109069824, 0.060948729515075684, 0.10490298271179199, 0.1488572359085083, 0.1928114891052246, 0.23676574230194092, 0.2807199954986572, 0.32467424869537354, 0.3686286211013794, 0.4125828742980957, 0.456537127494812, 0.5004912614822388, 0.5444456338882446, 0.5884000062942505, 0.6323541402816772, 0.6763085126876831, 0.7202626466751099, 0.7642170190811157, 0.8081711530685425, 0.8521255254745483, 0.8960798978805542, 0.940034031867981, 0.9839884042739868, 1.0279425382614136, 1.0718969106674194, 1.1158510446548462, 1.159805417060852, 1.2037595510482788, 1.2477139234542847]}, "parameters/output_network.6.bias": {"_type": "histogram", "values": [0.0, 0.0, 0.0, 0.0, 0.0, 0.0, 0.0, 0.0, 0.0, 0.0, 0.0, 0.0, 0.0, 0.0, 0.0, 0.0, 0.0, 0.0, 0.0, 0.0, 0.0, 0.0, 0.0, 0.0, 0.0, 0.0, 0.0, 0.0, 0.0, 0.0, 0.0, 0.0, 1.0, 0.0, 0.0, 0.0, 0.0, 0.0, 0.0, 0.0, 0.0, 0.0, 0.0, 0.0, 0.0, 0.0, 0.0, 0.0, 0.0, 0.0, 0.0, 0.0, 0.0, 0.0, 0.0, 0.0, 0.0, 0.0, 0.0, 0.0, 0.0, 0.0, 0.0, 0.0], "bins": [0.2095164656639099, 0.2095164656639099, 0.2095164656639099, 0.2095164656639099, 0.2095164656639099, 0.2095164656639099, 0.2095164656639099, 0.2095164656639099, 0.2095164656639099, 0.2095164656639099, 0.2095164656639099, 0.2095164656639099, 0.2095164656639099, 0.2095164656639099, 0.2095164656639099, 0.2095164656639099, 0.2095164656639099, 0.2095164656639099, 0.2095164656639099, 0.2095164656639099, 0.2095164656639099, 0.2095164656639099, 0.2095164656639099, 0.2095164656639099, 0.2095164656639099, 0.2095164656639099, 0.2095164656639099, 0.2095164656639099, 0.2095164656639099, 0.2095164656639099, 0.2095164656639099, 0.2095164656639099, 0.2095164656639099, 0.2095164656639099, 0.2095164656639099, 0.2095164656639099, 0.2095164656639099, 0.2095164656639099, 0.2095164656639099, 0.2095164656639099, 0.2095164656639099, 0.2095164656639099, 0.2095164656639099, 0.2095164656639099, 0.2095164656639099, 0.2095164656639099, 0.2095164656639099, 0.2095164656639099, 0.2095164656639099, 0.2095164656639099, 0.2095164656639099, 0.2095164656639099, 0.2095164656639099, 0.2095164656639099, 0.2095164656639099, 0.2095164656639099, 0.2095164656639099, 0.2095164656639099, 0.2095164656639099, 0.2095164656639099, 0.2095164656639099, 0.2095164656639099, 0.2095164656639099, 0.2095164656639099, 0.2095164656639099]}, "parameters/node_network.network.0.bias": {"_type": "histogram", "values": [1.0, 0.0, 0.0, 0.0, 0.0, 0.0, 0.0, 0.0, 1.0, 1.0, 1.0, 0.0, 1.0, 0.0, 1.0, 0.0, 1.0, 1.0, 1.0, 0.0, 1.0, 1.0, 1.0, 1.0, 0.0, 0.0, 1.0, 0.0, 0.0, 0.0, 0.0, 0.0, 0.0, 0.0, 0.0, 1.0, 0.0, 0.0, 1.0, 0.0, 0.0, 0.0, 0.0, 0.0, 0.0, 0.0, 0.0, 0.0, 0.0, 0.0, 0.0, 0.0, 0.0, 0.0, 0.0, 0.0, 0.0, 0.0, 0.0, 0.0, 0.0, 0.0, 0.0, 1.0], "bins": [-0.22256305813789368, -0.21431738138198853, -0.20607171952724457, -0.19782604277133942, -0.18958038091659546, -0.1813347041606903, -0.17308902740478516, -0.1648433655500412, -0.15659770369529724, -0.1483520269393921, -0.14010635018348694, -0.13186068832874298, -0.12361501157283783, -0.11536934226751328, -0.10712367296218872, -0.09887800365686417, -0.09063233435153961, -0.08238665759563446, -0.0741409957408905, -0.06589531898498535, -0.057649657130241394, -0.04940398037433624, -0.041158318519592285, -0.032912641763687134, -0.024666965007781982, -0.016421303153038025, -0.008175626397132874, 7.003545761108398e-05, 0.008315712213516235, 0.016561374068260193, 0.024807050824165344, 0.0330527126789093, 0.04129838943481445, 0.049544066190719604, 0.057789742946624756, 0.06603538990020752, 0.07428106665611267, 0.08252674341201782, 0.09077242016792297, 0.09901806712150574, 0.10726374387741089, 0.11550942063331604, 0.12375509738922119, 0.13200077414512634, 0.1402464210987091, 0.14849209785461426, 0.1567377746105194, 0.16498345136642456, 0.1732291281223297, 0.18147477507591248, 0.18972045183181763, 0.19796612858772278, 0.20621180534362793, 0.2144574522972107, 0.22270312905311584, 0.230948805809021, 0.23919448256492615, 0.2474401593208313, 0.25568580627441406, 0.2639314830303192, 0.27217715978622437, 0.2804228365421295, 0.2886684834957123, 0.2969141900539398, 0.3051598370075226]}, "parameters/output_network.4.weight": {"_type": "histogram", "values": [1.0, 0.0, 0.0, 0.0, 0.0, 0.0, 0.0, 0.0, 0.0, 0.0, 0.0, 0.0, 0.0, 0.0, 0.0, 1.0, 0.0, 0.0, 0.0, 1.0, 2.0, 0.0, 0.0, 1.0, 1.0, 0.0, 0.0, 2.0, 1.0, 0.0, 2.0, 1.0, 1.0, 0.0, 1.0, 0.0, 1.0, 4.0, 8.0, 21.0, 24.0, 21.0, 24.0, 26.0, 15.0, 20.0, 10.0, 18.0, 20.0, 25.0, 14.0, 10.0, 3.0, 2.0, 2.0, 0.0, 1.0, 1.0, 1.0, 0.0, 1.0, 1.0, 0.0, 1.0], "bins": [-1.694517731666565, -1.6572526693344116, -1.6199874877929688, -1.5827224254608154, -1.545457363128662, -1.5081923007965088, -1.4709272384643555, -1.4336620569229126, -1.3963969945907593, -1.359131932258606, -1.321866750717163, -1.2846016883850098, -1.2473366260528564, -1.2100715637207031, -1.1728065013885498, -1.135541319847107, -1.0982762575149536, -1.0610111951828003, -1.0237460136413574, -0.9864809513092041, -0.9492158889770508, -0.9119508266448975, -0.8746857047080994, -0.8374205827713013, -0.800155520439148, -0.7628904581069946, -0.7256253361701965, -0.6883602142333984, -0.6510951519012451, -0.6138300895690918, -0.5765649080276489, -0.5392998456954956, -0.5020347833633423, -0.46476972103118896, -0.42750465869903564, -0.3902394771575928, -0.35297441482543945, -0.31570935249328613, -0.27844417095184326, -0.24117910861968994, -0.20391404628753662, -0.1666489839553833, -0.12938392162322998, -0.09211874008178711, -0.05485367774963379, -0.01758861541748047, 0.019676566123962402, 0.05694162845611572, 0.09420669078826904, 0.13147175312042236, 0.16873681545257568, 0.20600199699401855, 0.24326705932617188, 0.2805321216583252, 0.31779730319976807, 0.3550623655319214, 0.3923274278640747, 0.429592490196228, 0.46685755252838135, 0.5041226148605347, 0.5413879156112671, 0.5786529779434204, 0.6159180402755737, 0.653183102607727, 0.6904481649398804]}, "gradients/output_network.0.bias": {"_type": "histogram", "values": [1.0, 0.0, 0.0, 0.0, 0.0, 0.0, 3.0, 0.0, 0.0, 1.0, 0.0, 1.0, 1.0, 1.0, 0.0, 0.0, 0.0, 0.0, 0.0, 0.0, 1.0, 1.0, 0.0, 0.0, 0.0, 0.0, 0.0, 0.0, 1.0, 0.0, 0.0, 0.0, 0.0, 0.0, 0.0, 1.0, 1.0, 0.0, 0.0, 0.0, 0.0, 1.0, 0.0, 0.0, 0.0, 0.0, 0.0, 0.0, 1.0, 0.0, 0.0, 0.0, 1.0, 0.0, 0.0, 0.0, 0.0, 0.0, 0.0, 0.0, 0.0, 0.0, 0.0, 1.0], "bins": [-0.0012119072489440441, -0.0010353445541113615, -0.0008587819756940007, -0.000682219339068979, -0.0005056567024439573, -0.00032909406581893563, -0.00015253142919391394, 2.4031149223446846e-05, 0.00020059384405612946, 0.00037715653888881207, 0.0005537191173061728, 0.0007302816957235336, 0.0009068443905562162, 0.0010834070853888988, 0.0012599695473909378, 0.0014365322422236204, 0.001613094937056303, 0.0017896576318889856, 0.0019662203267216682, 0.002142782788723707, 0.00231934548355639, 0.0024959081783890724, 0.0026724706403911114, 0.0028490335680544376, 0.0030255960300564766, 0.0032021584920585155, 0.003378721419721842, 0.0035552838817238808, 0.0037318463437259197, 0.003908409271389246, 0.004084971733391285, 0.004261534661054611, 0.00443809712305665, 0.004614659585058689, 0.004791222512722015, 0.004967784974724054, 0.005144347902387381, 0.0053209103643894196, 0.0054974728263914585, 0.005674035754054785, 0.005850598216056824, 0.006027160678058863, 0.006203723605722189, 0.006380286067724228, 0.006556848529726267, 0.006733411457389593, 0.006909974385052919, 0.007086536381393671, 0.007263099309056997, 0.0074396622367203236, 0.007616224233061075, 0.0077927871607244015, 0.00796934962272644, 0.008145911619067192, 0.008322475478053093, 0.008499037474393845, 0.008675599470734596, 0.008852163329720497, 0.009028725326061249, 0.00920528918504715, 0.009381851181387901, 0.009558413177728653, 0.009734977036714554, 0.009911539033055305, 0.010088101029396057]}, "gradients/node_network.network.0.weight": {"_type": "histogram", "values": [1.0, 0.0, 0.0, 0.0, 0.0, 0.0, 0.0, 0.0, 0.0, 0.0, 0.0, 0.0, 0.0, 0.0, 2.0, 0.0, 1.0, 0.0, 2.0, 0.0, 1.0, 5.0, 0.0, 1.0, 3.0, 2.0, 3.0, 2.0, 2.0, 2.0, 2.0, 4.0, 0.0, 2.0, 1.0, 8.0, 12.0, 25.0, 29.0, 77.0, 1235.0, 221.0, 22.0, 6.0, 7.0, 5.0, 5.0, 1.0, 0.0, 0.0, 1.0, 1.0, 0.0, 1.0, 3.0, 1.0, 0.0, 0.0, 0.0, 0.0, 0.0, 0.0, 3.0, 1.0], "bins": [-4.168298244476318, -4.065840244293213, -3.9633820056915283, -3.8609237670898438, -3.758465528488159, -3.6560075283050537, -3.553549289703369, -3.4510912895202637, -3.348633050918579, -3.2461748123168945, -3.143716812133789, -3.0412585735321045, -2.93880033493042, -2.8363423347473145, -2.73388409614563, -2.6314258575439453, -2.52896785736084, -2.4265096187591553, -2.3240513801574707, -2.2215933799743652, -2.1191351413726807, -2.016676902770996, -1.9142189025878906, -1.811760663986206, -1.7093024253845215, -1.606844425201416, -1.5043861865997314, -1.4019279479980469, -1.2994699478149414, -1.1970117092132568, -1.0945534706115723, -0.9920954704284668, -0.8896372318267822, -0.7871789932250977, -0.6847209930419922, -0.5822627544403076, -0.47980451583862305, -0.3773465156555176, -0.274888277053833, -0.17243003845214844, -0.06997203826904297, 0.0324859619140625, 0.13494443893432617, 0.23740243911743164, 0.3398604393005371, 0.4423189163208008, 0.5447769165039062, 0.6472349166870117, 0.7496933937072754, 0.8521513938903809, 0.9546093940734863, 1.05706787109375, 1.1595258712768555, 1.261983871459961, 1.3644423484802246, 1.46690034866333, 1.5693583488464355, 1.6718168258666992, 1.7742748260498047, 1.8767328262329102, 1.9791913032531738, 2.0816493034362793, 2.1841073036193848, 2.2865657806396484, 2.389023780822754]}, "parameters/node_network.network.2.weight": {"_type": "histogram", "values": [1.0, 1.0, 1.0, 1.0, 1.0, 0.0, 0.0, 1.0, 0.0, 0.0, 0.0, 0.0, 3.0, 0.0, 2.0, 0.0, 0.0, 0.0, 2.0, 1.0, 0.0, 3.0, 3.0, 1.0, 4.0, 3.0, 5.0, 9.0, 18.0, 17.0, 16.0, 32.0, 27.0, 23.0, 26.0, 32.0, 17.0, 7.0, 9.0, 8.0, 5.0, 3.0, 3.0, 1.0, 0.0, 1.0, 0.0, 0.0, 0.0, 0.0, 0.0, 0.0, 0.0, 0.0, 0.0, 0.0, 0.0, 0.0, 0.0, 0.0, 1.0, 0.0, 0.0, 1.0], "bins": [-2.244951009750366, -2.1748721599578857, -2.104793071746826, -2.0347142219543457, -1.9646352529525757, -1.8945562839508057, -1.8244774341583252, -1.7543984651565552, -1.6843194961547852, -1.6142405271530151, -1.5441615581512451, -1.4740827083587646, -1.4040037393569946, -1.3339247703552246, -1.2638459205627441, -1.1937669515609741, -1.123687982559204, -1.053609013557434, -0.9835300445556641, -0.9134511947631836, -0.8433722257614136, -0.7732932567596436, -0.7032144069671631, -0.6331354379653931, -0.563056468963623, -0.492977499961853, -0.422898530960083, -0.35281968116760254, -0.2827407121658325, -0.2126617431640625, -0.14258289337158203, -0.07250380516052246, -0.002424955368041992, 0.06765389442443848, 0.13773298263549805, 0.20781183242797852, 0.2778909206390381, 0.34796977043151855, 0.418048620223999, 0.4881277084350586, 0.5582065582275391, 0.6282854080200195, 0.6983644962310791, 0.7684433460235596, 0.83852219581604, 0.9086012840270996, 0.9786801338195801, 1.0487592220306396, 1.1188380718231201, 1.1889169216156006, 1.2589960098266602, 1.3290748596191406, 1.3991539478302002, 1.4692327976226807, 1.5393116474151611, 1.6093907356262207, 1.6794695854187012, 1.7495484352111816, 1.8196275234222412, 1.8897063732147217, 1.9597852230072021, 2.0298640727996826, 2.0999433994293213, 2.1700222492218018, 2.2401010990142822]}, "parameters/output_network.0.weight": {"_type": "histogram", "values": [1.0, 0.0, 0.0, 0.0, 0.0, 1.0, 0.0, 1.0, 0.0, 0.0, 0.0, 1.0, 0.0, 1.0, 2.0, 0.0, 0.0, 1.0, 3.0, 1.0, 1.0, 0.0, 1.0, 0.0, 1.0, 2.0, 1.0, 3.0, 1.0, 5.0, 18.0, 60.0, 58.0, 63.0, 54.0, 29.0, 17.0, 6.0, 2.0, 1.0, 2.0, 0.0, 0.0, 0.0, 0.0, 0.0, 0.0, 0.0, 0.0, 0.0, 0.0, 0.0, 0.0, 0.0, 0.0, 1.0, 0.0, 0.0, 0.0, 0.0, 0.0, 1.0, 0.0, 1.0], "bins": [-3.3972089290618896, -3.2941081523895264, -3.191007137298584, -3.0879063606262207, -2.9848055839538574, -2.881704807281494, -2.7786037921905518, -2.6755030155181885, -2.572402000427246, -2.469301223754883, -2.3662004470825195, -2.2630996704101562, -2.159998655319214, -2.0568978786468506, -1.9537969827651978, -1.8506962060928345, -1.7475953102111816, -1.6444944143295288, -1.5413936376571655, -1.4382927417755127, -1.3351919651031494, -1.232090950012207, -1.1289901733398438, -1.0258893966674805, -0.9227883815765381, -0.8196876049041748, -0.7165868282318115, -0.6134860515594482, -0.5103850364685059, -0.4072842597961426, -0.3041834831237793, -0.20108246803283691, -0.09798169136047363, 0.0051190853118896484, 0.10822010040283203, 0.2113208770751953, 0.3144216537475586, 0.417522668838501, 0.5206234455108643, 0.6237242221832275, 0.7268249988555908, 0.8299257755279541, 0.9330270290374756, 1.0361278057098389, 1.1392285823822021, 1.2423293590545654, 1.3454301357269287, 1.448530912399292, 1.5516321659088135, 1.6547329425811768, 1.75783371925354, 1.8609344959259033, 1.9640352725982666, 2.06713604927063, 2.170236825942993, 2.2733380794525146, 2.376438856124878, 2.479539632797241, 2.5826404094696045, 2.6857411861419678, 2.788841962814331, 2.8919432163238525, 2.995043992996216, 3.098144769668579, 3.2012455463409424]}}
